digraph Tree {
node [shape=box] ;
0 [label="X[6] <= 0.5\ngini = 0.4694\nsamples = 712\nvalue = [444, 268]"] ;
1 [label="X[0] <= 2.5\ngini = 0.386\nsamples = 245\nvalue = [64, 181]"] ;
0 -> 1 [labeldistance=2.5, labelangle=45, headlabel="True"] ;
2 [label="X[1] <= 2.5\ngini = 0.074\nsamples = 130\nvalue = [5, 125]"] ;
1 -> 2 ;
3 [label="X[3] <= 1.5\ngini = 0.5\nsamples = 2\nvalue = [1, 1]"] ;
2 -> 3 ;
4 [label="gini = 0.0\nsamples = 1\nvalue = [0, 1]"] ;
3 -> 4 ;
5 [label="gini = 0.0\nsamples = 1\nvalue = [1, 0]"] ;
3 -> 5 ;
6 [label="X[1] <= 27.5\ngini = 0.0605\nsamples = 128\nvalue = [4, 124]"] ;
2 -> 6 ;
7 [label="X[1] <= 24.5\ngini = 0.1195\nsamples = 47\nvalue = [3, 44]"] ;
6 -> 7 ;
8 [label="X[4] <= 13.3959\ngini = 0.0476\nsamples = 41\nvalue = [1, 40]"] ;
7 -> 8 ;
9 [label="X[1] <= 22.5\ngini = 0.375\nsamples = 4\nvalue = [1, 3]"] ;
8 -> 9 ;
10 [label="gini = 0.0\nsamples = 2\nvalue = [0, 2]"] ;
9 -> 10 ;
11 [label="gini = 0.5\nsamples = 2\nvalue = [1, 1]"] ;
9 -> 11 ;
12 [label="gini = 0.0\nsamples = 37\nvalue = [0, 37]"] ;
8 -> 12 ;
13 [label="X[4] <= 90.775\ngini = 0.4444\nsamples = 6\nvalue = [2, 4]"] ;
7 -> 13 ;
14 [label="X[4] <= 17.4291\ngini = 0.32\nsamples = 5\nvalue = [1, 4]"] ;
13 -> 14 ;
15 [label="gini = 0.0\nsamples = 2\nvalue = [0, 2]"] ;
14 -> 15 ;
16 [label="X[4] <= 23.5\ngini = 0.4444\nsamples = 3\nvalue = [1, 2]"] ;
14 -> 16 ;
17 [label="gini = 0.0\nsamples = 1\nvalue = [1, 0]"] ;
16 -> 17 ;
18 [label="gini = 0.0\nsamples = 2\nvalue = [0, 2]"] ;
16 -> 18 ;
19 [label="gini = 0.0\nsamples = 1\nvalue = [1, 0]"] ;
13 -> 19 ;
20 [label="X[1] <= 49.5\ngini = 0.0244\nsamples = 81\nvalue = [1, 80]"] ;
6 -> 20 ;
21 [label="gini = 0.0\nsamples = 65\nvalue = [0, 65]"] ;
20 -> 21 ;
22 [label="X[1] <= 50.5\ngini = 0.1172\nsamples = 16\nvalue = [1, 15]"] ;
20 -> 22 ;
23 [label="X[9] <= 0.5\ngini = 0.375\nsamples = 4\nvalue = [1, 3]"] ;
22 -> 23 ;
24 [label="gini = 0.0\nsamples = 1\nvalue = [1, 0]"] ;
23 -> 24 ;
25 [label="gini = 0.0\nsamples = 3\nvalue = [0, 3]"] ;
23 -> 25 ;
26 [label="gini = 0.0\nsamples = 12\nvalue = [0, 12]"] ;
22 -> 26 ;
27 [label="X[4] <= 23.35\ngini = 0.4997\nsamples = 115\nvalue = [59, 56]"] ;
1 -> 27 ;
28 [label="X[9] <= 0.5\ngini = 0.4855\nsamples = 94\nvalue = [39, 55]"] ;
27 -> 28 ;
29 [label="X[4] <= 15.3729\ngini = 0.405\nsamples = 39\nvalue = [11, 28]"] ;
28 -> 29 ;
30 [label="X[4] <= 13.9354\ngini = 0.4709\nsamples = 29\nvalue = [11, 18]"] ;
29 -> 30 ;
31 [label="X[3] <= 1.5\ngini = 0.3856\nsamples = 23\nvalue = [6, 17]"] ;
30 -> 31 ;
32 [label="X[4] <= 6.9875\ngini = 0.3512\nsamples = 22\nvalue = [5, 17]"] ;
31 -> 32 ;
33 [label="gini = 0.0\nsamples = 1\nvalue = [1, 0]"] ;
32 -> 33 ;
34 [label="X[7] <= 0.5\ngini = 0.3084\nsamples = 21\nvalue = [4, 17]"] ;
32 -> 34 ;
35 [label="X[4] <= 7.6813\ngini = 0.375\nsamples = 16\nvalue = [4, 12]"] ;
34 -> 35 ;
36 [label="gini = 0.0\nsamples = 1\nvalue = [1, 0]"] ;
35 -> 36 ;
37 [label="X[4] <= 8.0833\ngini = 0.32\nsamples = 15\nvalue = [3, 12]"] ;
35 -> 37 ;
38 [label="X[1] <= 21.5\ngini = 0.2449\nsamples = 14\nvalue = [2, 12]"] ;
37 -> 38 ;
39 [label="X[1] <= 18.5\ngini = 0.4444\nsamples = 3\nvalue = [1, 2]"] ;
38 -> 39 ;
40 [label="gini = 0.0\nsamples = 2\nvalue = [0, 2]"] ;
39 -> 40 ;
41 [label="gini = 0.0\nsamples = 1\nvalue = [1, 0]"] ;
39 -> 41 ;
42 [label="X[4] <= 7.7438\ngini = 0.1653\nsamples = 11\nvalue = [1, 10]"] ;
38 -> 42 ;
43 [label="gini = 0.0\nsamples = 2\nvalue = [0, 2]"] ;
42 -> 43 ;
44 [label="X[4] <= 7.8146\ngini = 0.1975\nsamples = 9\nvalue = [1, 8]"] ;
42 -> 44 ;
45 [label="X[1] <= 25.8496\ngini = 0.2449\nsamples = 7\nvalue = [1, 6]"] ;
44 -> 45 ;
46 [label="gini = 0.0\nsamples = 1\nvalue = [0, 1]"] ;
45 -> 46 ;
47 [label="gini = 0.2778\nsamples = 6\nvalue = [1, 5]"] ;
45 -> 47 ;
48 [label="gini = 0.0\nsamples = 2\nvalue = [0, 2]"] ;
44 -> 48 ;
49 [label="gini = 0.0\nsamples = 1\nvalue = [1, 0]"] ;
37 -> 49 ;
50 [label="gini = 0.0\nsamples = 5\nvalue = [0, 5]"] ;
34 -> 50 ;
51 [label="gini = 0.0\nsamples = 1\nvalue = [1, 0]"] ;
31 -> 51 ;
52 [label="X[4] <= 14.852\ngini = 0.2778\nsamples = 6\nvalue = [5, 1]"] ;
30 -> 52 ;
53 [label="gini = 0.0\nsamples = 4\nvalue = [4, 0]"] ;
52 -> 53 ;
54 [label="X[1] <= 29.3496\ngini = 0.5\nsamples = 2\nvalue = [1, 1]"] ;
52 -> 54 ;
55 [label="gini = 0.0\nsamples = 1\nvalue = [0, 1]"] ;
54 -> 55 ;
56 [label="gini = 0.0\nsamples = 1\nvalue = [1, 0]"] ;
54 -> 56 ;
57 [label="gini = 0.0\nsamples = 10\nvalue = [0, 10]"] ;
29 -> 57 ;
58 [label="X[4] <= 7.7\ngini = 0.4998\nsamples = 55\nvalue = [28, 27]"] ;
28 -> 58 ;
59 [label="gini = 0.0\nsamples = 4\nvalue = [0, 4]"] ;
58 -> 59 ;
60 [label="X[4] <= 10.825\ngini = 0.4952\nsamples = 51\nvalue = [28, 23]"] ;
58 -> 60 ;
61 [label="X[2] <= 2.5\ngini = 0.4281\nsamples = 29\nvalue = [20, 9]"] ;
60 -> 61 ;
62 [label="X[1] <= 54.0\ngini = 0.4082\nsamples = 28\nvalue = [20, 8]"] ;
61 -> 62 ;
63 [label="X[2] <= 0.5\ngini = 0.3841\nsamples = 27\nvalue = [20, 7]"] ;
62 -> 63 ;
64 [label="X[1] <= 27.5\ngini = 0.4339\nsamples = 22\nvalue = [15, 7]"] ;
63 -> 64 ;
65 [label="X[1] <= 25.5\ngini = 0.48\nsamples = 15\nvalue = [9, 6]"] ;
64 -> 65 ;
66 [label="X[1] <= 22.5\ngini = 0.375\nsamples = 12\nvalue = [9, 3]"] ;
65 -> 66 ;
67 [label="X[1] <= 16.0\ngini = 0.4444\nsamples = 9\nvalue = [6, 3]"] ;
66 -> 67 ;
68 [label="gini = 0.0\nsamples = 2\nvalue = [2, 0]"] ;
67 -> 68 ;
69 [label="X[3] <= 0.5\ngini = 0.4898\nsamples = 7\nvalue = [4, 3]"] ;
67 -> 69 ;
70 [label="X[4] <= 10.1792\ngini = 0.4444\nsamples = 6\nvalue = [4, 2]"] ;
69 -> 70 ;
71 [label="X[4] <= 9.8396\ngini = 0.48\nsamples = 5\nvalue = [3, 2]"] ;
70 -> 71 ;
72 [label="X[1] <= 21.0\ngini = 0.375\nsamples = 4\nvalue = [3, 1]"] ;
71 -> 72 ;
73 [label="gini = 0.0\nsamples = 2\nvalue = [2, 0]"] ;
72 -> 73 ;
74 [label="X[4] <= 8.8062\ngini = 0.5\nsamples = 2\nvalue = [1, 1]"] ;
72 -> 74 ;
75 [label="gini = 0.0\nsamples = 1\nvalue = [0, 1]"] ;
74 -> 75 ;
76 [label="gini = 0.0\nsamples = 1\nvalue = [1, 0]"] ;
74 -> 76 ;
77 [label="gini = 0.0\nsamples = 1\nvalue = [0, 1]"] ;
71 -> 77 ;
78 [label="gini = 0.0\nsamples = 1\nvalue = [1, 0]"] ;
70 -> 78 ;
79 [label="gini = 0.0\nsamples = 1\nvalue = [0, 1]"] ;
69 -> 79 ;
80 [label="gini = 0.0\nsamples = 3\nvalue = [3, 0]"] ;
66 -> 80 ;
81 [label="gini = 0.0\nsamples = 3\nvalue = [0, 3]"] ;
65 -> 81 ;
82 [label="X[4] <= 8.6729\ngini = 0.2449\nsamples = 7\nvalue = [6, 1]"] ;
64 -> 82 ;
83 [label="gini = 0.0\nsamples = 5\nvalue = [5, 0]"] ;
82 -> 83 ;
84 [label="X[1] <= 34.0\ngini = 0.5\nsamples = 2\nvalue = [1, 1]"] ;
82 -> 84 ;
85 [label="gini = 0.0\nsamples = 1\nvalue = [0, 1]"] ;
84 -> 85 ;
86 [label="gini = 0.0\nsamples = 1\nvalue = [1, 0]"] ;
84 -> 86 ;
87 [label="gini = 0.0\nsamples = 5\nvalue = [5, 0]"] ;
63 -> 87 ;
88 [label="gini = 0.0\nsamples = 1\nvalue = [0, 1]"] ;
62 -> 88 ;
89 [label="gini = 0.0\nsamples = 1\nvalue = [0, 1]"] ;
61 -> 89 ;
90 [label="X[4] <= 17.7\ngini = 0.4628\nsamples = 22\nvalue = [8, 14]"] ;
60 -> 90 ;
91 [label="X[1] <= 41.5\ngini = 0.3367\nsamples = 14\nvalue = [3, 11]"] ;
90 -> 91 ;
92 [label="X[4] <= 13.4375\ngini = 0.2604\nsamples = 13\nvalue = [2, 11]"] ;
91 -> 92 ;
93 [label="gini = 0.0\nsamples = 5\nvalue = [0, 5]"] ;
92 -> 93 ;
94 [label="X[4] <= 15.125\ngini = 0.375\nsamples = 8\nvalue = [2, 6]"] ;
92 -> 94 ;
95 [label="gini = 0.0\nsamples = 1\nvalue = [1, 0]"] ;
94 -> 95 ;
96 [label="X[1] <= 27.8496\ngini = 0.2449\nsamples = 7\nvalue = [1, 6]"] ;
94 -> 96 ;
97 [label="X[1] <= 25.0\ngini = 0.4444\nsamples = 3\nvalue = [1, 2]"] ;
96 -> 97 ;
98 [label="gini = 0.0\nsamples = 2\nvalue = [0, 2]"] ;
97 -> 98 ;
99 [label="gini = 0.0\nsamples = 1\nvalue = [1, 0]"] ;
97 -> 99 ;
100 [label="gini = 0.0\nsamples = 4\nvalue = [0, 4]"] ;
96 -> 100 ;
101 [label="gini = 0.0\nsamples = 1\nvalue = [1, 0]"] ;
91 -> 101 ;
102 [label="X[2] <= 1.5\ngini = 0.4688\nsamples = 8\nvalue = [5, 3]"] ;
90 -> 102 ;
103 [label="X[3] <= 0.5\ngini = 0.48\nsamples = 5\nvalue = [2, 3]"] ;
102 -> 103 ;
104 [label="gini = 0.0\nsamples = 1\nvalue = [1, 0]"] ;
103 -> 104 ;
105 [label="X[3] <= 3.0\ngini = 0.375\nsamples = 4\nvalue = [1, 3]"] ;
103 -> 105 ;
106 [label="gini = 0.0\nsamples = 3\nvalue = [0, 3]"] ;
105 -> 106 ;
107 [label="gini = 0.0\nsamples = 1\nvalue = [1, 0]"] ;
105 -> 107 ;
108 [label="gini = 0.0\nsamples = 3\nvalue = [3, 0]"] ;
102 -> 108 ;
109 [label="X[1] <= 5.5\ngini = 0.0907\nsamples = 21\nvalue = [20, 1]"] ;
27 -> 109 ;
110 [label="X[4] <= 31.3312\ngini = 0.4444\nsamples = 3\nvalue = [2, 1]"] ;
109 -> 110 ;
111 [label="gini = 0.0\nsamples = 2\nvalue = [2, 0]"] ;
110 -> 111 ;
112 [label="gini = 0.0\nsamples = 1\nvalue = [0, 1]"] ;
110 -> 112 ;
113 [label="gini = 0.0\nsamples = 18\nvalue = [18, 0]"] ;
109 -> 113 ;
114 [label="X[1] <= 6.5\ngini = 0.3032\nsamples = 467\nvalue = [380, 87]"] ;
0 -> 114 [labeldistance=2.5, labelangle=-45, headlabel="False"] ;
115 [label="X[2] <= 2.5\ngini = 0.4339\nsamples = 22\nvalue = [7, 15]"] ;
114 -> 115 ;
116 [label="gini = 0.0\nsamples = 14\nvalue = [0, 14]"] ;
115 -> 116 ;
117 [label="X[1] <= 2.5\ngini = 0.2188\nsamples = 8\nvalue = [7, 1]"] ;
115 -> 117 ;
118 [label="gini = 0.0\nsamples = 5\nvalue = [5, 0]"] ;
117 -> 118 ;
119 [label="X[4] <= 31.3312\ngini = 0.4444\nsamples = 3\nvalue = [2, 1]"] ;
117 -> 119 ;
120 [label="gini = 0.0\nsamples = 2\nvalue = [2, 0]"] ;
119 -> 120 ;
121 [label="gini = 0.0\nsamples = 1\nvalue = [0, 1]"] ;
119 -> 121 ;
122 [label="X[0] <= 1.5\ngini = 0.2712\nsamples = 445\nvalue = [373, 72]"] ;
114 -> 122 ;
123 [label="X[4] <= 387.6646\ngini = 0.442\nsamples = 91\nvalue = [61, 30]"] ;
122 -> 123 ;
124 [label="X[4] <= 26.1437\ngini = 0.4313\nsamples = 89\nvalue = [61, 28]"] ;
123 -> 124 ;
125 [label="gini = 0.0\nsamples = 7\nvalue = [7, 0]"] ;
124 -> 125 ;
126 [label="X[4] <= 134.6416\ngini = 0.4497\nsamples = 82\nvalue = [54, 28]"] ;
124 -> 126 ;
127 [label="X[1] <= 27.5\ngini = 0.4679\nsamples = 75\nvalue = [47, 28]"] ;
126 -> 127 ;
128 [label="X[1] <= 23.0\ngini = 0.4444\nsamples = 9\nvalue = [3, 6]"] ;
127 -> 128 ;
129 [label="X[4] <= 109.8916\ngini = 0.375\nsamples = 4\nvalue = [3, 1]"] ;
128 -> 129 ;
130 [label="gini = 0.0\nsamples = 3\nvalue = [3, 0]"] ;
129 -> 130 ;
131 [label="gini = 0.0\nsamples = 1\nvalue = [0, 1]"] ;
129 -> 131 ;
132 [label="gini = 0.0\nsamples = 5\nvalue = [0, 5]"] ;
128 -> 132 ;
133 [label="X[4] <= 26.4188\ngini = 0.4444\nsamples = 66\nvalue = [44, 22]"] ;
127 -> 133 ;
134 [label="gini = 0.0\nsamples = 2\nvalue = [0, 2]"] ;
133 -> 134 ;
135 [label="X[4] <= 115.4417\ngini = 0.4297\nsamples = 64\nvalue = [44, 20]"] ;
133 -> 135 ;
136 [label="X[1] <= 75.0\ngini = 0.4121\nsamples = 62\nvalue = [44, 18]"] ;
135 -> 136 ;
137 [label="X[1] <= 60.5\ngini = 0.402\nsamples = 61\nvalue = [44, 17]"] ;
136 -> 137 ;
138 [label="X[4] <= 37.55\ngini = 0.4228\nsamples = 56\nvalue = [39, 17]"] ;
137 -> 138 ;
139 [label="X[1] <= 28.5\ngini = 0.4829\nsamples = 27\nvalue = [16, 11]"] ;
138 -> 139 ;
140 [label="gini = 0.0\nsamples = 1\nvalue = [0, 1]"] ;
139 -> 140 ;
141 [label="X[1] <= 57.0\ngini = 0.4734\nsamples = 26\nvalue = [16, 10]"] ;
139 -> 141 ;
142 [label="X[1] <= 47.5\ngini = 0.4861\nsamples = 24\nvalue = [14, 10]"] ;
141 -> 142 ;
143 [label="X[4] <= 29.1\ngini = 0.4444\nsamples = 18\nvalue = [12, 6]"] ;
142 -> 143 ;
144 [label="X[4] <= 27.1354\ngini = 0.2449\nsamples = 7\nvalue = [6, 1]"] ;
143 -> 144 ;
145 [label="X[1] <= 37.3496\ngini = 0.4444\nsamples = 3\nvalue = [2, 1]"] ;
144 -> 145 ;
146 [label="gini = 0.0\nsamples = 1\nvalue = [1, 0]"] ;
145 -> 146 ;
147 [label="gini = 0.5\nsamples = 2\nvalue = [1, 1]"] ;
145 -> 147 ;
148 [label="gini = 0.0\nsamples = 4\nvalue = [4, 0]"] ;
144 -> 148 ;
149 [label="X[1] <= 34.5\ngini = 0.4959\nsamples = 11\nvalue = [6, 5]"] ;
143 -> 149 ;
150 [label="X[1] <= 29.3496\ngini = 0.4688\nsamples = 8\nvalue = [3, 5]"] ;
149 -> 150 ;
151 [label="gini = 0.0\nsamples = 1\nvalue = [1, 0]"] ;
150 -> 151 ;
152 [label="X[4] <= 30.75\ngini = 0.4082\nsamples = 7\nvalue = [2, 5]"] ;
150 -> 152 ;
153 [label="gini = 0.0\nsamples = 4\nvalue = [0, 4]"] ;
152 -> 153 ;
154 [label="X[4] <= 35.25\ngini = 0.4444\nsamples = 3\nvalue = [2, 1]"] ;
152 -> 154 ;
155 [label="gini = 0.0\nsamples = 2\nvalue = [2, 0]"] ;
154 -> 155 ;
156 [label="gini = 0.0\nsamples = 1\nvalue = [0, 1]"] ;
154 -> 156 ;
157 [label="gini = 0.0\nsamples = 3\nvalue = [3, 0]"] ;
149 -> 157 ;
158 [label="X[1] <= 53.5\ngini = 0.4444\nsamples = 6\nvalue = [2, 4]"] ;
142 -> 158 ;
159 [label="gini = 0.0\nsamples = 3\nvalue = [0, 3]"] ;
158 -> 159 ;
160 [label="X[9] <= 0.5\ngini = 0.4444\nsamples = 3\nvalue = [2, 1]"] ;
158 -> 160 ;
161 [label="gini = 0.0\nsamples = 1\nvalue = [0, 1]"] ;
160 -> 161 ;
162 [label="gini = 0.0\nsamples = 2\nvalue = [2, 0]"] ;
160 -> 162 ;
163 [label="gini = 0.0\nsamples = 2\nvalue = [2, 0]"] ;
141 -> 163 ;
164 [label="X[2] <= 0.5\ngini = 0.3282\nsamples = 29\nvalue = [23, 6]"] ;
138 -> 164 ;
165 [label="gini = 0.0\nsamples = 11\nvalue = [11, 0]"] ;
164 -> 165 ;
166 [label="X[1] <= 56.0\ngini = 0.4444\nsamples = 18\nvalue = [12, 6]"] ;
164 -> 166 ;
167 [label="X[1] <= 49.5\ngini = 0.4152\nsamples = 17\nvalue = [12, 5]"] ;
166 -> 167 ;
168 [label="X[1] <= 47.0\ngini = 0.4592\nsamples = 14\nvalue = [9, 5]"] ;
167 -> 168 ;
169 [label="X[3] <= 0.5\ngini = 0.3967\nsamples = 11\nvalue = [8, 3]"] ;
168 -> 169 ;
170 [label="X[1] <= 40.0\ngini = 0.32\nsamples = 10\nvalue = [8, 2]"] ;
169 -> 170 ;
171 [label="X[4] <= 86.0854\ngini = 0.4444\nsamples = 6\nvalue = [4, 2]"] ;
170 -> 171 ;
172 [label="X[4] <= 61.8\ngini = 0.32\nsamples = 5\nvalue = [4, 1]"] ;
171 -> 172 ;
173 [label="X[4] <= 54.5\ngini = 0.5\nsamples = 2\nvalue = [1, 1]"] ;
172 -> 173 ;
174 [label="gini = 0.0\nsamples = 1\nvalue = [1, 0]"] ;
173 -> 174 ;
175 [label="gini = 0.0\nsamples = 1\nvalue = [0, 1]"] ;
173 -> 175 ;
176 [label="gini = 0.0\nsamples = 3\nvalue = [3, 0]"] ;
172 -> 176 ;
177 [label="gini = 0.0\nsamples = 1\nvalue = [0, 1]"] ;
171 -> 177 ;
178 [label="gini = 0.0\nsamples = 4\nvalue = [4, 0]"] ;
170 -> 178 ;
179 [label="gini = 0.0\nsamples = 1\nvalue = [0, 1]"] ;
169 -> 179 ;
180 [label="X[4] <= 99.9938\ngini = 0.4444\nsamples = 3\nvalue = [1, 2]"] ;
168 -> 180 ;
181 [label="gini = 0.0\nsamples = 2\nvalue = [0, 2]"] ;
180 -> 181 ;
182 [label="gini = 0.0\nsamples = 1\nvalue = [1, 0]"] ;
180 -> 182 ;
183 [label="gini = 0.0\nsamples = 3\nvalue = [3, 0]"] ;
167 -> 183 ;
184 [label="gini = 0.0\nsamples = 1\nvalue = [0, 1]"] ;
166 -> 184 ;
185 [label="gini = 0.0\nsamples = 5\nvalue = [5, 0]"] ;
137 -> 185 ;
186 [label="gini = 0.0\nsamples = 1\nvalue = [0, 1]"] ;
136 -> 186 ;
187 [label="gini = 0.0\nsamples = 2\nvalue = [0, 2]"] ;
135 -> 187 ;
188 [label="gini = 0.0\nsamples = 7\nvalue = [7, 0]"] ;
126 -> 188 ;
189 [label="gini = 0.0\nsamples = 2\nvalue = [0, 2]"] ;
123 -> 189 ;
190 [label="X[4] <= 51.6979\ngini = 0.2091\nsamples = 354\nvalue = [312, 42]"] ;
122 -> 190 ;
191 [label="X[1] <= 32.25\ngini = 0.198\nsamples = 341\nvalue = [303, 38]"] ;
190 -> 191 ;
192 [label="X[1] <= 31.5\ngini = 0.2284\nsamples = 251\nvalue = [218, 33]"] ;
191 -> 192 ;
193 [label="X[7] <= 0.5\ngini = 0.2117\nsamples = 241\nvalue = [212, 29]"] ;
192 -> 193 ;
194 [label="X[1] <= 10.0\ngini = 0.1831\nsamples = 206\nvalue = [185, 21]"] ;
193 -> 194 ;
195 [label="X[2] <= 2.5\ngini = 0.4082\nsamples = 7\nvalue = [5, 2]"] ;
194 -> 195 ;
196 [label="gini = 0.0\nsamples = 2\nvalue = [0, 2]"] ;
195 -> 196 ;
197 [label="gini = 0.0\nsamples = 5\nvalue = [5, 0]"] ;
195 -> 197 ;
198 [label="X[4] <= 7.7979\ngini = 0.1727\nsamples = 199\nvalue = [180, 19]"] ;
194 -> 198 ;
199 [label="X[4] <= 7.7625\ngini = 0.2585\nsamples = 59\nvalue = [50, 9]"] ;
198 -> 199 ;
200 [label="X[1] <= 23.0\ngini = 0.1938\nsamples = 46\nvalue = [41, 5]"] ;
199 -> 200 ;
201 [label="gini = 0.0\nsamples = 14\nvalue = [14, 0]"] ;
200 -> 201 ;
202 [label="X[1] <= 29.3496\ngini = 0.2637\nsamples = 32\nvalue = [27, 5]"] ;
200 -> 202 ;
203 [label="X[1] <= 26.0\ngini = 0.5\nsamples = 8\nvalue = [4, 4]"] ;
202 -> 203 ;
204 [label="X[4] <= 3.525\ngini = 0.4444\nsamples = 6\nvalue = [4, 2]"] ;
203 -> 204 ;
205 [label="gini = 0.0\nsamples = 1\nvalue = [0, 1]"] ;
204 -> 205 ;
206 [label="X[1] <= 24.5\ngini = 0.32\nsamples = 5\nvalue = [4, 1]"] ;
204 -> 206 ;
207 [label="gini = 0.0\nsamples = 1\nvalue = [0, 1]"] ;
206 -> 207 ;
208 [label="gini = 0.0\nsamples = 4\nvalue = [4, 0]"] ;
206 -> 208 ;
209 [label="gini = 0.0\nsamples = 2\nvalue = [0, 2]"] ;
203 -> 209 ;
210 [label="X[4] <= 7.7417\ngini = 0.0799\nsamples = 24\nvalue = [23, 1]"] ;
202 -> 210 ;
211 [label="gini = 0.0\nsamples = 14\nvalue = [14, 0]"] ;
210 -> 211 ;
212 [label="X[1] <= 30.3496\ngini = 0.18\nsamples = 10\nvalue = [9, 1]"] ;
210 -> 212 ;
213 [label="X[2] <= 0.5\ngini = 0.1975\nsamples = 9\nvalue = [8, 1]"] ;
212 -> 213 ;
214 [label="gini = 0.2188\nsamples = 8\nvalue = [7, 1]"] ;
213 -> 214 ;
215 [label="gini = 0.0\nsamples = 1\nvalue = [1, 0]"] ;
213 -> 215 ;
216 [label="gini = 0.0\nsamples = 1\nvalue = [1, 0]"] ;
212 -> 216 ;
217 [label="X[2] <= 0.5\ngini = 0.426\nsamples = 13\nvalue = [9, 4]"] ;
199 -> 217 ;
218 [label="X[1] <= 20.0\ngini = 0.375\nsamples = 12\nvalue = [9, 3]"] ;
217 -> 218 ;
219 [label="gini = 0.0\nsamples = 3\nvalue = [3, 0]"] ;
218 -> 219 ;
220 [label="X[1] <= 21.5\ngini = 0.4444\nsamples = 9\nvalue = [6, 3]"] ;
218 -> 220 ;
221 [label="gini = 0.0\nsamples = 1\nvalue = [0, 1]"] ;
220 -> 221 ;
222 [label="X[1] <= 26.5\ngini = 0.375\nsamples = 8\nvalue = [6, 2]"] ;
220 -> 222 ;
223 [label="gini = 0.0\nsamples = 3\nvalue = [3, 0]"] ;
222 -> 223 ;
224 [label="X[1] <= 27.5\ngini = 0.48\nsamples = 5\nvalue = [3, 2]"] ;
222 -> 224 ;
225 [label="gini = 0.0\nsamples = 1\nvalue = [0, 1]"] ;
224 -> 225 ;
226 [label="X[4] <= 7.7854\ngini = 0.375\nsamples = 4\nvalue = [3, 1]"] ;
224 -> 226 ;
227 [label="X[1] <= 30.3496\ngini = 0.4444\nsamples = 3\nvalue = [2, 1]"] ;
226 -> 227 ;
228 [label="gini = 0.5\nsamples = 2\nvalue = [1, 1]"] ;
227 -> 228 ;
229 [label="gini = 0.0\nsamples = 1\nvalue = [1, 0]"] ;
227 -> 229 ;
230 [label="gini = 0.0\nsamples = 1\nvalue = [1, 0]"] ;
226 -> 230 ;
231 [label="gini = 0.0\nsamples = 1\nvalue = [0, 1]"] ;
217 -> 231 ;
232 [label="X[1] <= 30.5\ngini = 0.1327\nsamples = 140\nvalue = [130, 10]"] ;
198 -> 232 ;
233 [label="X[4] <= 7.9104\ngini = 0.1219\nsamples = 138\nvalue = [129, 9]"] ;
232 -> 233 ;
234 [label="gini = 0.0\nsamples = 29\nvalue = [29, 0]"] ;
233 -> 234 ;
235 [label="X[4] <= 11.0\ngini = 0.1515\nsamples = 109\nvalue = [100, 9]"] ;
233 -> 235 ;
236 [label="X[1] <= 20.5\ngini = 0.2122\nsamples = 58\nvalue = [51, 7]"] ;
235 -> 236 ;
237 [label="X[4] <= 8.175\ngini = 0.3457\nsamples = 18\nvalue = [14, 4]"] ;
236 -> 237 ;
238 [label="X[4] <= 7.9875\ngini = 0.5\nsamples = 6\nvalue = [3, 3]"] ;
237 -> 238 ;
239 [label="gini = 0.0\nsamples = 1\nvalue = [0, 1]"] ;
238 -> 239 ;
240 [label="X[1] <= 19.5\ngini = 0.48\nsamples = 5\nvalue = [3, 2]"] ;
238 -> 240 ;
241 [label="X[1] <= 17.5\ngini = 0.5\nsamples = 4\nvalue = [2, 2]"] ;
240 -> 241 ;
242 [label="gini = 0.5\nsamples = 2\nvalue = [1, 1]"] ;
241 -> 242 ;
243 [label="gini = 0.5\nsamples = 2\nvalue = [1, 1]"] ;
241 -> 243 ;
244 [label="gini = 0.0\nsamples = 1\nvalue = [1, 0]"] ;
240 -> 244 ;
245 [label="X[4] <= 10.3354\ngini = 0.1528\nsamples = 12\nvalue = [11, 1]"] ;
237 -> 245 ;
246 [label="gini = 0.0\nsamples = 9\nvalue = [9, 0]"] ;
245 -> 246 ;
247 [label="X[1] <= 17.5\ngini = 0.4444\nsamples = 3\nvalue = [2, 1]"] ;
245 -> 247 ;
248 [label="gini = 0.0\nsamples = 1\nvalue = [1, 0]"] ;
247 -> 248 ;
249 [label="gini = 0.5\nsamples = 2\nvalue = [1, 1]"] ;
247 -> 249 ;
250 [label="X[4] <= 8.0813\ngini = 0.1388\nsamples = 40\nvalue = [37, 3]"] ;
236 -> 250 ;
251 [label="gini = 0.0\nsamples = 22\nvalue = [22, 0]"] ;
250 -> 251 ;
252 [label="X[4] <= 8.3875\ngini = 0.2778\nsamples = 18\nvalue = [15, 3]"] ;
250 -> 252 ;
253 [label="gini = 0.0\nsamples = 1\nvalue = [0, 1]"] ;
252 -> 253 ;
254 [label="X[1] <= 26.5\ngini = 0.2076\nsamples = 17\nvalue = [15, 2]"] ;
252 -> 254 ;
255 [label="gini = 0.0\nsamples = 7\nvalue = [7, 0]"] ;
254 -> 255 ;
256 [label="X[1] <= 27.5\ngini = 0.32\nsamples = 10\nvalue = [8, 2]"] ;
254 -> 256 ;
257 [label="gini = 0.0\nsamples = 1\nvalue = [0, 1]"] ;
256 -> 257 ;
258 [label="X[4] <= 10.0\ngini = 0.1975\nsamples = 9\nvalue = [8, 1]"] ;
256 -> 258 ;
259 [label="X[1] <= 28.5\ngini = 0.2778\nsamples = 6\nvalue = [5, 1]"] ;
258 -> 259 ;
260 [label="gini = 0.0\nsamples = 2\nvalue = [2, 0]"] ;
259 -> 260 ;
261 [label="X[1] <= 29.3496\ngini = 0.375\nsamples = 4\nvalue = [3, 1]"] ;
259 -> 261 ;
262 [label="X[4] <= 9.4916\ngini = 0.5\nsamples = 2\nvalue = [1, 1]"] ;
261 -> 262 ;
263 [label="gini = 0.0\nsamples = 1\nvalue = [1, 0]"] ;
262 -> 263 ;
264 [label="gini = 0.0\nsamples = 1\nvalue = [0, 1]"] ;
262 -> 264 ;
265 [label="gini = 0.0\nsamples = 2\nvalue = [2, 0]"] ;
261 -> 265 ;
266 [label="gini = 0.0\nsamples = 3\nvalue = [3, 0]"] ;
258 -> 266 ;
267 [label="X[1] <= 29.3496\ngini = 0.0754\nsamples = 51\nvalue = [49, 2]"] ;
235 -> 267 ;
268 [label="gini = 0.0\nsamples = 34\nvalue = [34, 0]"] ;
267 -> 268 ;
269 [label="X[2] <= 1.5\ngini = 0.2076\nsamples = 17\nvalue = [15, 2]"] ;
267 -> 269 ;
270 [label="X[4] <= 13.75\ngini = 0.1244\nsamples = 15\nvalue = [14, 1]"] ;
269 -> 270 ;
271 [label="X[1] <= 29.8496\ngini = 0.4444\nsamples = 3\nvalue = [2, 1]"] ;
270 -> 271 ;
272 [label="gini = 0.0\nsamples = 1\nvalue = [0, 1]"] ;
271 -> 272 ;
273 [label="gini = 0.0\nsamples = 2\nvalue = [2, 0]"] ;
271 -> 273 ;
274 [label="gini = 0.0\nsamples = 12\nvalue = [12, 0]"] ;
270 -> 274 ;
275 [label="X[3] <= 0.5\ngini = 0.5\nsamples = 2\nvalue = [1, 1]"] ;
269 -> 275 ;
276 [label="gini = 0.0\nsamples = 1\nvalue = [0, 1]"] ;
275 -> 276 ;
277 [label="gini = 0.0\nsamples = 1\nvalue = [1, 0]"] ;
275 -> 277 ;
278 [label="X[2] <= 0.5\ngini = 0.5\nsamples = 2\nvalue = [1, 1]"] ;
232 -> 278 ;
279 [label="gini = 0.0\nsamples = 1\nvalue = [0, 1]"] ;
278 -> 279 ;
280 [label="gini = 0.0\nsamples = 1\nvalue = [1, 0]"] ;
278 -> 280 ;
281 [label="X[1] <= 22.5\ngini = 0.3527\nsamples = 35\nvalue = [27, 8]"] ;
193 -> 281 ;
282 [label="X[1] <= 11.5\ngini = 0.5\nsamples = 8\nvalue = [4, 4]"] ;
281 -> 282 ;
283 [label="gini = 0.0\nsamples = 1\nvalue = [1, 0]"] ;
282 -> 283 ;
284 [label="X[4] <= 9.2354\ngini = 0.4898\nsamples = 7\nvalue = [3, 4]"] ;
282 -> 284 ;
285 [label="X[4] <= 5.6187\ngini = 0.48\nsamples = 5\nvalue = [3, 2]"] ;
284 -> 285 ;
286 [label="gini = 0.0\nsamples = 1\nvalue = [1, 0]"] ;
285 -> 286 ;
287 [label="X[1] <= 17.5\ngini = 0.5\nsamples = 4\nvalue = [2, 2]"] ;
285 -> 287 ;
288 [label="gini = 0.0\nsamples = 1\nvalue = [1, 0]"] ;
287 -> 288 ;
289 [label="X[1] <= 21.0\ngini = 0.4444\nsamples = 3\nvalue = [1, 2]"] ;
287 -> 289 ;
290 [label="gini = 0.0\nsamples = 1\nvalue = [0, 1]"] ;
289 -> 290 ;
291 [label="X[4] <= 7.2271\ngini = 0.5\nsamples = 2\nvalue = [1, 1]"] ;
289 -> 291 ;
292 [label="gini = 0.0\nsamples = 1\nvalue = [0, 1]"] ;
291 -> 292 ;
293 [label="gini = 0.0\nsamples = 1\nvalue = [1, 0]"] ;
291 -> 293 ;
294 [label="gini = 0.0\nsamples = 2\nvalue = [0, 2]"] ;
284 -> 294 ;
295 [label="X[2] <= 0.5\ngini = 0.2524\nsamples = 27\nvalue = [23, 4]"] ;
281 -> 295 ;
296 [label="X[4] <= 16.9188\ngini = 0.3084\nsamples = 21\nvalue = [17, 4]"] ;
295 -> 296 ;
297 [label="X[4] <= 7.5625\ngini = 0.255\nsamples = 20\nvalue = [17, 3]"] ;
296 -> 297 ;
298 [label="X[4] <= 7.2271\ngini = 0.142\nsamples = 13\nvalue = [12, 1]"] ;
297 -> 298 ;
299 [label="gini = 0.0\nsamples = 5\nvalue = [5, 0]"] ;
298 -> 299 ;
300 [label="X[1] <= 29.0996\ngini = 0.2188\nsamples = 8\nvalue = [7, 1]"] ;
298 -> 300 ;
301 [label="gini = 0.0\nsamples = 1\nvalue = [1, 0]"] ;
300 -> 301 ;
302 [label="X[1] <= 29.8496\ngini = 0.2449\nsamples = 7\nvalue = [6, 1]"] ;
300 -> 302 ;
303 [label="gini = 0.2778\nsamples = 6\nvalue = [5, 1]"] ;
302 -> 303 ;
304 [label="gini = 0.0\nsamples = 1\nvalue = [1, 0]"] ;
302 -> 304 ;
305 [label="X[4] <= 14.1604\ngini = 0.4082\nsamples = 7\nvalue = [5, 2]"] ;
297 -> 305 ;
306 [label="X[1] <= 29.3496\ngini = 0.5\nsamples = 4\nvalue = [2, 2]"] ;
305 -> 306 ;
307 [label="gini = 0.0\nsamples = 1\nvalue = [0, 1]"] ;
306 -> 307 ;
308 [label="X[4] <= 10.8792\ngini = 0.4444\nsamples = 3\nvalue = [2, 1]"] ;
306 -> 308 ;
309 [label="gini = 0.0\nsamples = 2\nvalue = [2, 0]"] ;
308 -> 309 ;
310 [label="gini = 0.0\nsamples = 1\nvalue = [0, 1]"] ;
308 -> 310 ;
311 [label="gini = 0.0\nsamples = 3\nvalue = [3, 0]"] ;
305 -> 311 ;
312 [label="gini = 0.0\nsamples = 1\nvalue = [0, 1]"] ;
296 -> 312 ;
313 [label="gini = 0.0\nsamples = 6\nvalue = [6, 0]"] ;
295 -> 313 ;
314 [label="X[0] <= 2.5\ngini = 0.48\nsamples = 10\nvalue = [6, 4]"] ;
192 -> 314 ;
315 [label="gini = 0.0\nsamples = 1\nvalue = [0, 1]"] ;
314 -> 315 ;
316 [label="X[4] <= 8.2063\ngini = 0.4444\nsamples = 9\nvalue = [6, 3]"] ;
314 -> 316 ;
317 [label="X[4] <= 7.9875\ngini = 0.4898\nsamples = 7\nvalue = [4, 3]"] ;
316 -> 317 ;
318 [label="X[8] <= 0.5\ngini = 0.4444\nsamples = 6\nvalue = [4, 2]"] ;
317 -> 318 ;
319 [label="X[4] <= 7.875\ngini = 0.48\nsamples = 5\nvalue = [3, 2]"] ;
318 -> 319 ;
320 [label="gini = 0.0\nsamples = 1\nvalue = [0, 1]"] ;
319 -> 320 ;
321 [label="X[4] <= 7.9104\ngini = 0.375\nsamples = 4\nvalue = [3, 1]"] ;
319 -> 321 ;
322 [label="gini = 0.0\nsamples = 1\nvalue = [1, 0]"] ;
321 -> 322 ;
323 [label="gini = 0.4444\nsamples = 3\nvalue = [2, 1]"] ;
321 -> 323 ;
324 [label="gini = 0.0\nsamples = 1\nvalue = [1, 0]"] ;
318 -> 324 ;
325 [label="gini = 0.0\nsamples = 1\nvalue = [0, 1]"] ;
317 -> 325 ;
326 [label="gini = 0.0\nsamples = 2\nvalue = [2, 0]"] ;
316 -> 326 ;
327 [label="X[1] <= 61.5\ngini = 0.1049\nsamples = 90\nvalue = [85, 5]"] ;
191 -> 327 ;
328 [label="X[4] <= 13.25\ngini = 0.0887\nsamples = 86\nvalue = [82, 4]"] ;
327 -> 328 ;
329 [label="X[4] <= 12.7625\ngini = 0.1284\nsamples = 58\nvalue = [54, 4]"] ;
328 -> 329 ;
330 [label="X[4] <= 7.9104\ngini = 0.0783\nsamples = 49\nvalue = [47, 2]"] ;
329 -> 330 ;
331 [label="gini = 0.0\nsamples = 25\nvalue = [25, 0]"] ;
330 -> 331 ;
332 [label="X[4] <= 7.9875\ngini = 0.1528\nsamples = 24\nvalue = [22, 2]"] ;
330 -> 332 ;
333 [label="X[2] <= 1.0\ngini = 0.5\nsamples = 4\nvalue = [2, 2]"] ;
332 -> 333 ;
334 [label="X[1] <= 41.5\ngini = 0.4444\nsamples = 3\nvalue = [1, 2]"] ;
333 -> 334 ;
335 [label="gini = 0.5\nsamples = 2\nvalue = [1, 1]"] ;
334 -> 335 ;
336 [label="gini = 0.0\nsamples = 1\nvalue = [0, 1]"] ;
334 -> 336 ;
337 [label="gini = 0.0\nsamples = 1\nvalue = [1, 0]"] ;
333 -> 337 ;
338 [label="gini = 0.0\nsamples = 20\nvalue = [20, 0]"] ;
332 -> 338 ;
339 [label="X[1] <= 45.0\ngini = 0.3457\nsamples = 9\nvalue = [7, 2]"] ;
329 -> 339 ;
340 [label="X[1] <= 40.5\ngini = 0.4444\nsamples = 6\nvalue = [4, 2]"] ;
339 -> 340 ;
341 [label="X[1] <= 36.5\ngini = 0.375\nsamples = 4\nvalue = [3, 1]"] ;
340 -> 341 ;
342 [label="gini = 0.4444\nsamples = 3\nvalue = [2, 1]"] ;
341 -> 342 ;
343 [label="gini = 0.0\nsamples = 1\nvalue = [1, 0]"] ;
341 -> 343 ;
344 [label="gini = 0.5\nsamples = 2\nvalue = [1, 1]"] ;
340 -> 344 ;
345 [label="gini = 0.0\nsamples = 3\nvalue = [3, 0]"] ;
339 -> 345 ;
346 [label="gini = 0.0\nsamples = 28\nvalue = [28, 0]"] ;
328 -> 346 ;
347 [label="X[1] <= 66.0\ngini = 0.375\nsamples = 4\nvalue = [3, 1]"] ;
327 -> 347 ;
348 [label="gini = 0.0\nsamples = 1\nvalue = [0, 1]"] ;
347 -> 348 ;
349 [label="gini = 0.0\nsamples = 3\nvalue = [3, 0]"] ;
347 -> 349 ;
350 [label="X[4] <= 63.0229\ngini = 0.426\nsamples = 13\nvalue = [9, 4]"] ;
190 -> 350 ;
351 [label="X[1] <= 30.8496\ngini = 0.4444\nsamples = 6\nvalue = [2, 4]"] ;
350 -> 351 ;
352 [label="X[1] <= 27.0\ngini = 0.5\nsamples = 4\nvalue = [2, 2]"] ;
351 -> 352 ;
353 [label="gini = 0.0\nsamples = 1\nvalue = [0, 1]"] ;
352 -> 353 ;
354 [label="X[1] <= 28.8496\ngini = 0.4444\nsamples = 3\nvalue = [2, 1]"] ;
352 -> 354 ;
355 [label="gini = 0.0\nsamples = 1\nvalue = [1, 0]"] ;
354 -> 355 ;
356 [label="gini = 0.5\nsamples = 2\nvalue = [1, 1]"] ;
354 -> 356 ;
357 [label="gini = 0.0\nsamples = 2\nvalue = [0, 2]"] ;
351 -> 357 ;
358 [label="gini = 0.0\nsamples = 7\nvalue = [7, 0]"] ;
350 -> 358 ;
}